digraph Tree {
node [shape=box] ;
0 [label="女性 <= 0.5\ngini = 0.449\nsamples = 984\nvalue = [649, 335]"] ;
1 [label="年龄 <= 12.0\ngini = 0.277\nsamples = 638\nvalue = [532, 106]"] ;
0 -> 1 [labeldistance=2.5, labelangle=45, headlabel="True"] ;
2 [label="pclass=3rd <= 0.5\ngini = 0.375\nsamples = 24\nvalue = [6, 18]"] ;
1 -> 2 ;
3 [label="gini = 0.0\nsamples = 12\nvalue = [0, 12]"] ;
2 -> 3 ;
4 [label="年龄 <= 3.5\ngini = 0.5\nsamples = 12\nvalue = [6, 6]"] ;
2 -> 4 ;
5 [label="年龄 <= 0.583\ngini = 0.32\nsamples = 5\nvalue = [1, 4]"] ;
4 -> 5 ;
6 [label="gini = 0.0\nsamples = 1\nvalue = [1, 0]"] ;
5 -> 6 ;
7 [label="gini = 0.0\nsamples = 4\nvalue = [0, 4]"] ;
5 -> 7 ;
8 [label="年龄 <= 7.5\ngini = 0.408\nsamples = 7\nvalue = [5, 2]"] ;
4 -> 8 ;
9 [label="gini = 0.0\nsamples = 3\nvalue = [3, 0]"] ;
8 -> 9 ;
10 [label="gini = 0.5\nsamples = 4\nvalue = [2, 2]"] ;
8 -> 10 ;
11 [label="pclass=1st <= 0.5\ngini = 0.246\nsamples = 614\nvalue = [526, 88]"] ;
1 -> 11 ;
12 [label="年龄 <= 41.5\ngini = 0.174\nsamples = 479\nvalue = [433, 46]"] ;
11 -> 12 ;
13 [label="年龄 <= 18.5\ngini = 0.18\nsamples = 460\nvalue = [414, 46]"] ;
12 -> 13 ;
14 [label="gini = 0.0\nsamples = 13\nvalue = [13, 0]"] ;
13 -> 14 ;
15 [label="gini = 0.185\nsamples = 447\nvalue = [401, 46]"] ;
13 -> 15 ;
16 [label="gini = 0.0\nsamples = 19\nvalue = [19, 0]"] ;
12 -> 16 ;
17 [label="年龄 <= 28.5\ngini = 0.429\nsamples = 135\nvalue = [93, 42]"] ;
11 -> 17 ;
18 [label="年龄 <= 17.5\ngini = 0.492\nsamples = 16\nvalue = [7, 9]"] ;
17 -> 18 ;
19 [label="gini = 0.0\nsamples = 1\nvalue = [0, 1]"] ;
18 -> 19 ;
20 [label="gini = 0.498\nsamples = 15\nvalue = [7, 8]"] ;
18 -> 20 ;
21 [label="年龄 <= 60.5\ngini = 0.401\nsamples = 119\nvalue = [86, 33]"] ;
17 -> 21 ;
22 [label="gini = 0.422\nsamples = 109\nvalue = [76, 33]"] ;
21 -> 22 ;
23 [label="gini = 0.0\nsamples = 10\nvalue = [10, 0]"] ;
21 -> 23 ;
24 [label="pclass=3rd <= 0.5\ngini = 0.448\nsamples = 346\nvalue = [117, 229]"] ;
0 -> 24 [labeldistance=2.5, labelangle=-45, headlabel="False"] ;
25 [label="年龄 <= 2.5\ngini = 0.154\nsamples = 190\nvalue = [16, 174]"] ;
24 -> 25 ;
26 [label="pclass=2nd <= 0.5\ngini = 0.5\nsamples = 2\nvalue = [1, 1]"] ;
25 -> 26 ;
27 [label="gini = 0.0\nsamples = 1\nvalue = [1, 0]"] ;
26 -> 27 ;
28 [label="gini = 0.0\nsamples = 1\nvalue = [0, 1]"] ;
26 -> 28 ;
29 [label="pclass=2nd <= 0.5\ngini = 0.147\nsamples = 188\nvalue = [15, 173]"] ;
25 -> 29 ;
30 [label="年龄 <= 62.5\ngini = 0.091\nsamples = 105\nvalue = [5, 100]"] ;
29 -> 30 ;
31 [label="gini = 0.076\nsamples = 101\nvalue = [4, 97]"] ;
30 -> 31 ;
32 [label="gini = 0.375\nsamples = 4\nvalue = [1, 3]"] ;
30 -> 32 ;
33 [label="年龄 <= 55.0\ngini = 0.212\nsamples = 83\nvalue = [10, 73]"] ;
29 -> 33 ;
34 [label="gini = 0.195\nsamples = 82\nvalue = [9, 73]"] ;
33 -> 34 ;
35 [label="gini = 0.0\nsamples = 1\nvalue = [1, 0]"] ;
33 -> 35 ;
36 [label="年龄 <= 19.0\ngini = 0.457\nsamples = 156\nvalue = [101, 55]"] ;
24 -> 36 ;
37 [label="年龄 <= 13.0\ngini = 0.492\nsamples = 16\nvalue = [7, 9]"] ;
36 -> 37 ;
38 [label="年龄 <= 5.5\ngini = 0.375\nsamples = 8\nvalue = [6, 2]"] ;
37 -> 38 ;
39 [label="gini = 0.444\nsamples = 3\nvalue = [1, 2]"] ;
38 -> 39 ;
40 [label="gini = 0.0\nsamples = 5\nvalue = [5, 0]"] ;
38 -> 40 ;
41 [label="年龄 <= 17.5\ngini = 0.219\nsamples = 8\nvalue = [1, 7]"] ;
37 -> 41 ;
42 [label="gini = 0.0\nsamples = 3\nvalue = [0, 3]"] ;
41 -> 42 ;
43 [label="gini = 0.32\nsamples = 5\nvalue = [1, 4]"] ;
41 -> 43 ;
44 [label="年龄 <= 38.5\ngini = 0.441\nsamples = 140\nvalue = [94, 46]"] ;
36 -> 44 ;
45 [label="年龄 <= 32.5\ngini = 0.448\nsamples = 136\nvalue = [90, 46]"] ;
44 -> 45 ;
46 [label="gini = 0.436\nsamples = 131\nvalue = [89, 42]"] ;
45 -> 46 ;
47 [label="gini = 0.32\nsamples = 5\nvalue = [1, 4]"] ;
45 -> 47 ;
48 [label="gini = 0.0\nsamples = 4\nvalue = [4, 0]"] ;
44 -> 48 ;
}